digraph Tree {
node [shape=box, style="rounded", color="black", fontname=helvetica] ;
edge [fontname=helvetica] ;
0 [label="temp_1 <= 59.5\nmse = 145.7\nsamples = 162\nvalue = 62.7"] ;
1 [label="average <= 46.9\nmse = 42.6\nsamples = 63\nvalue = 51.2"] ;
0 -> 1 [labeldistance=2.5, labelangle=45, headlabel="True"] ;
2 [label="day_30 <= 0.5\nmse = 17.0\nsamples = 17\nvalue = 42.9"] ;
1 -> 2 ;
3 [label="average <= 46.2\nmse = 9.7\nsamples = 16\nvalue = 42.4"] ;
2 -> 3 ;
4 [label="average <= 45.5\nmse = 4.7\nsamples = 12\nvalue = 41.3"] ;
3 -> 4 ;
5 [label="week_Mon <= 0.5\nmse = 3.1\nsamples = 7\nvalue = 40.2"] ;
4 -> 5 ;
6 [label="temp_2 <= 43.5\nmse = 0.4\nsamples = 6\nvalue = 39.8"] ;
5 -> 6 ;
7 [label="mse = 0.0\nsamples = 2\nvalue = 39.0"] ;
6 -> 7 ;
8 [label="temp_1 <= 41.5\nmse = 0.1\nsamples = 4\nvalue = 40.1"] ;
6 -> 8 ;
9 [label="mse = 0.0\nsamples = 1\nvalue = 41.0"] ;
8 -> 9 ;
10 [label="mse = 0.0\nsamples = 3\nvalue = 40.0"] ;
8 -> 10 ;
11 [label="mse = 0.0\nsamples = 1\nvalue = 46.0"] ;
5 -> 11 ;
12 [label="average <= 45.8\nmse = 2.5\nsamples = 5\nvalue = 43.0"] ;
4 -> 12 ;
13 [label="day_1 <= 0.5\nmse = 0.2\nsamples = 3\nvalue = 44.2"] ;
12 -> 13 ;
14 [label="mse = 0.0\nsamples = 2\nvalue = 44.0"] ;
13 -> 14 ;
15 [label="mse = 0.0\nsamples = 1\nvalue = 45.0"] ;
13 -> 15 ;
16 [label="mse = 0.0\nsamples = 2\nvalue = 41.0"] ;
12 -> 16 ;
17 [label="forecast_under <= 46.0\nmse = 4.4\nsamples = 4\nvalue = 47.0"] ;
3 -> 17 ;
18 [label="week_Tues <= 0.5\nmse = 0.2\nsamples = 2\nvalue = 49.5"] ;
17 -> 18 ;
19 [label="mse = 0.0\nsamples = 1\nvalue = 50.0"] ;
18 -> 19 ;
20 [label="mse = 0.0\nsamples = 1\nvalue = 49.0"] ;
18 -> 20 ;
21 [label="day_4 <= 0.5\nmse = 0.2\nsamples = 2\nvalue = 45.3"] ;
17 -> 21 ;
22 [label="mse = 0.0\nsamples = 1\nvalue = 45.0"] ;
21 -> 22 ;
23 [label="mse = 0.0\nsamples = 1\nvalue = 46.0"] ;
21 -> 23 ;
24 [label="mse = 0.0\nsamples = 1\nvalue = 57.0"] ;
2 -> 24 ;
25 [label="temp_1 <= 55.5\nmse = 19.5\nsamples = 46\nvalue = 54.1"] ;
1 -> 25 ;
26 [label="day_1 <= 0.5\nmse = 7.7\nsamples = 29\nvalue = 51.9"] ;
25 -> 26 ;
27 [label="day_23 <= 0.5\nmse = 5.9\nsamples = 27\nvalue = 52.3"] ;
26 -> 27 ;
28 [label="date_2016-1-15 <= 0.5\nmse = 4.7\nsamples = 26\nvalue = 52.1"] ;
27 -> 28 ;
29 [label="temp_2 <= 58.0\nmse = 4.2\nsamples = 25\nvalue = 52.3"] ;
28 -> 29 ;
30 [label="friend <= 33.5\nmse = 3.7\nsamples = 24\nvalue = 52.2"] ;
29 -> 30 ;
31 [label="friend <= 30.5\nmse = 0.2\nsamples = 2\nvalue = 54.2"] ;
30 -> 31 ;
32 [label="mse = 0.0\nsamples = 1\nvalue = 54.0"] ;
31 -> 32 ;
33 [label="mse = 0.0\nsamples = 1\nvalue = 55.0"] ;
31 -> 33 ;
34 [label="friend <= 53.5\nmse = 3.6\nsamples = 22\nvalue = 51.9"] ;
30 -> 34 ;
35 [label="week_Fri <= 0.5\nmse = 3.2\nsamples = 8\nvalue = 51.0"] ;
34 -> 35 ;
36 [label="week_Sun <= 0.5\nmse = 1.2\nsamples = 5\nvalue = 49.9"] ;
35 -> 36 ;
37 [label="month_11 <= 0.5\nmse = 0.7\nsamples = 4\nvalue = 49.1"] ;
36 -> 37 ;
38 [label="forecast_under <= 51.5\nmse = 0.2\nsamples = 3\nvalue = 48.5"] ;
37 -> 38 ;
39 [label="mse = 0.0\nsamples = 2\nvalue = 48.0"] ;
38 -> 39 ;
40 [label="mse = 0.0\nsamples = 1\nvalue = 49.0"] ;
38 -> 40 ;
41 [label="mse = 0.0\nsamples = 1\nvalue = 50.0"] ;
37 -> 41 ;
42 [label="mse = 0.0\nsamples = 1\nvalue = 51.0"] ;
36 -> 42 ;
43 [label="forecast_noaa <= 48.5\nmse = 1.0\nsamples = 3\nvalue = 52.9"] ;
35 -> 43 ;
44 [label="forecast_acc <= 51.0\nmse = 0.2\nsamples = 2\nvalue = 52.5"] ;
43 -> 44 ;
45 [label="mse = 0.0\nsamples = 1\nvalue = 53.0"] ;
44 -> 45 ;
46 [label="mse = 0.0\nsamples = 1\nvalue = 52.0"] ;
44 -> 46 ;
47 [label="mse = 0.0\nsamples = 1\nvalue = 55.0"] ;
43 -> 47 ;
48 [label="temp_1 <= 51.5\nmse = 2.5\nsamples = 14\nvalue = 52.8"] ;
34 -> 48 ;
49 [label="month_1 <= 0.5\nmse = 2.5\nsamples = 7\nvalue = 51.9"] ;
48 -> 49 ;
50 [label="week_Sat <= 0.5\nmse = 0.6\nsamples = 4\nvalue = 50.6"] ;
49 -> 50 ;
51 [label="mse = 0.0\nsamples = 3\nvalue = 51.0"] ;
50 -> 51 ;
52 [label="mse = 0.0\nsamples = 1\nvalue = 49.0"] ;
50 -> 52 ;
53 [label="date_2016-1-20 <= 0.5\nmse = 1.0\nsamples = 3\nvalue = 53.2"] ;
49 -> 53 ;
54 [label="mse = 0.0\nsamples = 2\nvalue = 54.0"] ;
53 -> 54 ;
55 [label="mse = 0.0\nsamples = 1\nvalue = 52.0"] ;
53 -> 55 ;
56 [label="average <= 48.5\nmse = 0.8\nsamples = 7\nvalue = 53.7"] ;
48 -> 56 ;
57 [label="mse = 0.0\nsamples = 1\nvalue = 52.0"] ;
56 -> 57 ;
58 [label="forecast_acc <= 57.0\nmse = 0.5\nsamples = 6\nvalue = 53.9"] ;
56 -> 58 ;
59 [label="week_Wed <= 0.5\nmse = 0.1\nsamples = 5\nvalue = 54.1"] ;
58 -> 59 ;
60 [label="mse = 0.0\nsamples = 4\nvalue = 54.0"] ;
59 -> 60 ;
61 [label="mse = 0.0\nsamples = 1\nvalue = 55.0"] ;
59 -> 61 ;
62 [label="mse = 0.0\nsamples = 1\nvalue = 52.0"] ;
58 -> 62 ;
63 [label="mse = 0.0\nsamples = 1\nvalue = 57.0"] ;
29 -> 63 ;
64 [label="mse = 0.0\nsamples = 1\nvalue = 48.0"] ;
28 -> 64 ;
65 [label="mse = 0.0\nsamples = 1\nvalue = 60.0"] ;
27 -> 65 ;
66 [label="mse = 0.0\nsamples = 2\nvalue = 46.0"] ;
26 -> 66 ;
67 [label="forecast_noaa <= 50.5\nmse = 15.6\nsamples = 17\nvalue = 58.2"] ;
25 -> 67 ;
68 [label="date_2016-3-5 <= 0.5\nmse = 8.8\nsamples = 7\nvalue = 55.1"] ;
67 -> 68 ;
69 [label="forecast_noaa <= 49.0\nmse = 1.0\nsamples = 6\nvalue = 54.2"] ;
68 -> 69 ;
70 [label="mse = 0.0\nsamples = 5\nvalue = 55.0"] ;
69 -> 70 ;
71 [label="mse = 0.0\nsamples = 1\nvalue = 53.0"] ;
69 -> 71 ;
72 [label="mse = 0.0\nsamples = 1\nvalue = 64.0"] ;
68 -> 72 ;
73 [label="friend <= 58.5\nmse = 8.9\nsamples = 10\nvalue = 60.4"] ;
67 -> 73 ;
74 [label="day_11 <= 0.5\nmse = 9.6\nsamples = 6\nvalue = 62.1"] ;
73 -> 74 ;
75 [label="forecast_noaa <= 54.5\nmse = 2.7\nsamples = 5\nvalue = 63.1"] ;
74 -> 75 ;
76 [label="month_11 <= 0.5\nmse = 0.8\nsamples = 3\nvalue = 64.0"] ;
75 -> 76 ;
77 [label="average <= 54.8\nmse = 0.2\nsamples = 2\nvalue = 63.3"] ;
76 -> 77 ;
78 [label="mse = 0.0\nsamples = 1\nvalue = 63.0"] ;
77 -> 78 ;
79 [label="mse = 0.0\nsamples = 1\nvalue = 64.0"] ;
77 -> 79 ;
80 [label="mse = 0.0\nsamples = 1\nvalue = 65.0"] ;
76 -> 80 ;
81 [label="week_Sat <= 0.5\nmse = 1.0\nsamples = 2\nvalue = 61.0"] ;
75 -> 81 ;
82 [label="mse = 0.0\nsamples = 1\nvalue = 60.0"] ;
81 -> 82 ;
83 [label="mse = 0.0\nsamples = 1\nvalue = 62.0"] ;
81 -> 83 ;
84 [label="mse = 0.0\nsamples = 1\nvalue = 55.0"] ;
74 -> 84 ;
85 [label="temp_1 <= 57.5\nmse = 2.0\nsamples = 4\nvalue = 58.6"] ;
73 -> 85 ;
86 [label="mse = 0.0\nsamples = 1\nvalue = 57.0"] ;
85 -> 86 ;
87 [label="week_Thurs <= 0.5\nmse = 0.6\nsamples = 3\nvalue = 59.6"] ;
85 -> 87 ;
88 [label="week_Tues <= 0.5\nmse = 0.2\nsamples = 2\nvalue = 60.5"] ;
87 -> 88 ;
89 [label="mse = 0.0\nsamples = 1\nvalue = 61.0"] ;
88 -> 89 ;
90 [label="mse = 0.0\nsamples = 1\nvalue = 60.0"] ;
88 -> 90 ;
91 [label="mse = 0.0\nsamples = 1\nvalue = 59.0"] ;
87 -> 91 ;
92 [label="temp_1 <= 67.5\nmse = 66.8\nsamples = 99\nvalue = 70.4"] ;
0 -> 92 [labeldistance=2.5, labelangle=-45, headlabel="False"] ;
93 [label="forecast_under <= 61.0\nmse = 23.5\nsamples = 42\nvalue = 63.9"] ;
92 -> 93 ;
94 [label="temp_2 <= 60.5\nmse = 13.7\nsamples = 19\nvalue = 60.7"] ;
93 -> 94 ;
95 [label="week_Sat <= 0.5\nmse = 12.9\nsamples = 11\nvalue = 63.2"] ;
94 -> 95 ;
96 [label="day_30 <= 0.5\nmse = 8.0\nsamples = 9\nvalue = 61.8"] ;
95 -> 96 ;
97 [label="month_11 <= 0.5\nmse = 4.1\nsamples = 8\nvalue = 61.1"] ;
96 -> 97 ;
98 [label="friend <= 47.5\nmse = 1.9\nsamples = 6\nvalue = 60.3"] ;
97 -> 98 ;
99 [label="temp_1 <= 60.5\nmse = 0.2\nsamples = 2\nvalue = 58.5"] ;
98 -> 99 ;
100 [label="mse = 0.0\nsamples = 1\nvalue = 59.0"] ;
99 -> 100 ;
101 [label="mse = 0.0\nsamples = 1\nvalue = 58.0"] ;
99 -> 101 ;
102 [label="forecast_under <= 55.0\nmse = 0.8\nsamples = 4\nvalue = 61.0"] ;
98 -> 102 ;
103 [label="mse = 0.0\nsamples = 2\nvalue = 60.0"] ;
102 -> 103 ;
104 [label="temp_1 <= 61.0\nmse = 0.2\nsamples = 2\nvalue = 61.7"] ;
102 -> 104 ;
105 [label="mse = 0.0\nsamples = 1\nvalue = 61.0"] ;
104 -> 105 ;
106 [label="mse = 0.0\nsamples = 1\nvalue = 62.0"] ;
104 -> 106 ;
107 [label="day_4 <= 0.5\nmse = 1.0\nsamples = 2\nvalue = 64.0"] ;
97 -> 107 ;
108 [label="mse = 0.0\nsamples = 1\nvalue = 63.0"] ;
107 -> 108 ;
109 [label="mse = 0.0\nsamples = 1\nvalue = 65.0"] ;
107 -> 109 ;
110 [label="mse = 0.0\nsamples = 1\nvalue = 68.0"] ;
96 -> 110 ;
111 [label="mse = 0.0\nsamples = 2\nvalue = 68.0"] ;
95 -> 111 ;
112 [label="date_2016-4-24 <= 0.5\nmse = 3.8\nsamples = 8\nvalue = 58.5"] ;
94 -> 112 ;
113 [label="forecast_acc <= 60.5\nmse = 1.1\nsamples = 7\nvalue = 59.3"] ;
112 -> 113 ;
114 [label="temp_1 <= 61.5\nmse = 0.6\nsamples = 4\nvalue = 58.5"] ;
113 -> 114 ;
115 [label="mse = 0.0\nsamples = 1\nvalue = 57.0"] ;
114 -> 115 ;
116 [label="friend <= 50.5\nmse = 0.2\nsamples = 3\nvalue = 58.8"] ;
114 -> 116 ;
117 [label="mse = 0.0\nsamples = 1\nvalue = 58.0"] ;
116 -> 117 ;
118 [label="mse = 0.0\nsamples = 2\nvalue = 59.0"] ;
116 -> 118 ;
119 [label="forecast_noaa <= 54.0\nmse = 0.1\nsamples = 3\nvalue = 60.2"] ;
113 -> 119 ;
120 [label="mse = 0.0\nsamples = 1\nvalue = 61.0"] ;
119 -> 120 ;
121 [label="mse = 0.0\nsamples = 2\nvalue = 60.0"] ;
119 -> 121 ;
122 [label="mse = 0.0\nsamples = 1\nvalue = 55.0"] ;
112 -> 122 ;
123 [label="temp_2 <= 78.0\nmse = 17.3\nsamples = 23\nvalue = 66.3"] ;
93 -> 123 ;
124 [label="friend <= 54.5\nmse = 13.4\nsamples = 22\nvalue = 66.8"] ;
123 -> 124 ;
125 [label="forecast_under <= 64.5\nmse = 3.6\nsamples = 2\nvalue = 60.3"] ;
124 -> 125 ;
126 [label="mse = 0.0\nsamples = 1\nvalue = 63.0"] ;
125 -> 126 ;
127 [label="mse = 0.0\nsamples = 1\nvalue = 59.0"] ;
125 -> 127 ;
128 [label="temp_2 <= 64.5\nmse = 10.2\nsamples = 20\nvalue = 67.4"] ;
124 -> 128 ;
129 [label="friend <= 71.0\nmse = 9.0\nsamples = 8\nvalue = 68.9"] ;
128 -> 129 ;
130 [label="temp_1 <= 65.5\nmse = 2.0\nsamples = 3\nvalue = 71.6"] ;
129 -> 130 ;
131 [label="mse = 0.0\nsamples = 2\nvalue = 71.0"] ;
130 -> 131 ;
132 [label="mse = 0.0\nsamples = 1\nvalue = 75.0"] ;
130 -> 132 ;
133 [label="friend <= 77.0\nmse = 4.4\nsamples = 5\nvalue = 66.8"] ;
129 -> 133 ;
134 [label="date_2016-5-20 <= 0.5\nmse = 1.0\nsamples = 3\nvalue = 65.2"] ;
133 -> 134 ;
135 [label="mse = 0.0\nsamples = 2\nvalue = 64.0"] ;
134 -> 135 ;
136 [label="mse = 0.0\nsamples = 1\nvalue = 66.0"] ;
134 -> 136 ;
137 [label="month_4 <= 0.5\nmse = 1.7\nsamples = 2\nvalue = 68.8"] ;
133 -> 137 ;
138 [label="mse = 0.0\nsamples = 1\nvalue = 71.0"] ;
137 -> 138 ;
139 [label="mse = 0.0\nsamples = 1\nvalue = 68.0"] ;
137 -> 139 ;
140 [label="month_9 <= 0.5\nmse = 7.4\nsamples = 12\nvalue = 66.0"] ;
128 -> 140 ;
141 [label="average <= 69.2\nmse = 4.4\nsamples = 8\nvalue = 64.2"] ;
140 -> 141 ;
142 [label="day_5 <= 0.5\nmse = 2.7\nsamples = 7\nvalue = 64.7"] ;
141 -> 142 ;
143 [label="forecast_acc <= 70.0\nmse = 1.4\nsamples = 6\nvalue = 64.2"] ;
142 -> 143 ;
144 [label="forecast_acc <= 67.5\nmse = 0.2\nsamples = 4\nvalue = 63.4"] ;
143 -> 144 ;
145 [label="mse = 0.0\nsamples = 2\nvalue = 64.0"] ;
144 -> 145 ;
146 [label="mse = 0.0\nsamples = 2\nvalue = 63.0"] ;
144 -> 146 ;
147 [label="date_2016-5-24 <= 0.5\nmse = 0.2\nsamples = 2\nvalue = 65.7"] ;
143 -> 147 ;
148 [label="mse = 0.0\nsamples = 1\nvalue = 65.0"] ;
147 -> 148 ;
149 [label="mse = 0.0\nsamples = 1\nvalue = 66.0"] ;
147 -> 149 ;
150 [label="mse = 0.0\nsamples = 1\nvalue = 68.0"] ;
142 -> 150 ;
151 [label="mse = 0.0\nsamples = 1\nvalue = 60.0"] ;
141 -> 151 ;
152 [label="friend <= 60.0\nmse = 2.2\nsamples = 4\nvalue = 68.2"] ;
140 -> 152 ;
153 [label="mse = 0.0\nsamples = 1\nvalue = 72.0"] ;
152 -> 153 ;
154 [label="temp_1 <= 65.5\nmse = 0.2\nsamples = 3\nvalue = 67.7"] ;
152 -> 154 ;
155 [label="mse = 0.0\nsamples = 1\nvalue = 67.0"] ;
154 -> 155 ;
156 [label="mse = 0.0\nsamples = 2\nvalue = 68.0"] ;
154 -> 156 ;
157 [label="mse = 0.0\nsamples = 1\nvalue = 57.0"] ;
123 -> 157 ;
158 [label="forecast_under <= 76.5\nmse = 44.2\nsamples = 57\nvalue = 75.3"] ;
92 -> 158 ;
159 [label="temp_1 <= 88.0\nmse = 33.9\nsamples = 44\nvalue = 73.1"] ;
158 -> 159 ;
160 [label="day_4 <= 0.5\nmse = 28.8\nsamples = 42\nvalue = 72.5"] ;
159 -> 160 ;
161 [label="week_Sat <= 0.5\nmse = 24.2\nsamples = 39\nvalue = 73.1"] ;
160 -> 161 ;
162 [label="temp_2 <= 79.5\nmse = 19.3\nsamples = 32\nvalue = 74.4"] ;
161 -> 162 ;
163 [label="date_2016-5-8 <= 0.5\nmse = 16.9\nsamples = 28\nvalue = 73.7"] ;
162 -> 163 ;
164 [label="forecast_under <= 68.5\nmse = 14.3\nsamples = 27\nvalue = 73.9"] ;
163 -> 164 ;
165 [label="forecast_acc <= 67.0\nmse = 10.1\nsamples = 8\nvalue = 77.1"] ;
164 -> 165 ;
166 [label="week_Sun <= 0.5\nmse = 4.7\nsamples = 4\nvalue = 73.8"] ;
165 -> 166 ;
167 [label="friend <= 48.5\nmse = 1.6\nsamples = 3\nvalue = 72.7"] ;
166 -> 167 ;
168 [label="mse = 0.0\nsamples = 1\nvalue = 71.0"] ;
167 -> 168 ;
169 [label="forecast_noaa <= 58.5\nmse = 0.2\nsamples = 2\nvalue = 73.5"] ;
167 -> 169 ;
170 [label="mse = 0.0\nsamples = 1\nvalue = 73.0"] ;
169 -> 170 ;
171 [label="mse = 0.0\nsamples = 1\nvalue = 74.0"] ;
169 -> 171 ;
172 [label="mse = 0.0\nsamples = 1\nvalue = 77.0"] ;
166 -> 172 ;
173 [label="day_1 <= 0.5\nmse = 3.1\nsamples = 4\nvalue = 79.0"] ;
165 -> 173 ;
174 [label="friend <= 72.5\nmse = 0.6\nsamples = 3\nvalue = 79.7"] ;
173 -> 174 ;
175 [label="date_2016-6-3 <= 0.5\nmse = 0.2\nsamples = 2\nvalue = 80.3"] ;
174 -> 175 ;
176 [label="mse = 0.0\nsamples = 1\nvalue = 81.0"] ;
175 -> 176 ;
177 [label="mse = 0.0\nsamples = 1\nvalue = 80.0"] ;
175 -> 177 ;
178 [label="mse = 0.0\nsamples = 1\nvalue = 79.0"] ;
174 -> 178 ;
179 [label="mse = 0.0\nsamples = 1\nvalue = 75.0"] ;
173 -> 179 ;
180 [label="temp_2 <= 69.5\nmse = 10.4\nsamples = 19\nvalue = 72.7"] ;
164 -> 180 ;
181 [label="average <= 73.8\nmse = 12.5\nsamples = 5\nvalue = 69.6"] ;
180 -> 181 ;
182 [label="temp_1 <= 71.5\nmse = 6.6\nsamples = 4\nvalue = 68.5"] ;
181 -> 182 ;
183 [label="forecast_noaa <= 70.0\nmse = 0.6\nsamples = 3\nvalue = 67.4"] ;
182 -> 183 ;
184 [label="forecast_noaa <= 66.5\nmse = 0.2\nsamples = 2\nvalue = 66.5"] ;
183 -> 184 ;
185 [label="mse = 0.0\nsamples = 1\nvalue = 66.0"] ;
184 -> 185 ;
186 [label="mse = 0.0\nsamples = 1\nvalue = 67.0"] ;
184 -> 186 ;
187 [label="mse = 0.0\nsamples = 1\nvalue = 68.0"] ;
183 -> 187 ;
188 [label="mse = 0.0\nsamples = 1\nvalue = 74.0"] ;
182 -> 188 ;
189 [label="mse = 0.0\nsamples = 1\nvalue = 76.0"] ;
181 -> 189 ;
190 [label="date_2016-6-23 <= 0.5\nmse = 5.1\nsamples = 14\nvalue = 73.8"] ;
180 -> 190 ;
191 [label="day_14 <= 0.5\nmse = 3.5\nsamples = 13\nvalue = 74.1"] ;
190 -> 191 ;
192 [label="month_8 <= 0.5\nmse = 2.3\nsamples = 12\nvalue = 73.8"] ;
191 -> 192 ;
193 [label="week_Thurs <= 0.5\nmse = 1.5\nsamples = 11\nvalue = 74.0"] ;
192 -> 193 ;
194 [label="day_1 <= 0.5\nmse = 0.9\nsamples = 9\nvalue = 74.4"] ;
193 -> 194 ;
195 [label="week_Wed <= 0.5\nmse = 0.6\nsamples = 8\nvalue = 74.1"] ;
194 -> 195 ;
196 [label="temp_1 <= 75.0\nmse = 0.4\nsamples = 6\nvalue = 73.8"] ;
195 -> 196 ;
197 [label="average <= 73.0\nmse = 0.1\nsamples = 4\nvalue = 74.2"] ;
196 -> 197 ;
198 [label="mse = 0.0\nsamples = 1\nvalue = 75.0"] ;
197 -> 198 ;
199 [label="mse = 0.0\nsamples = 3\nvalue = 74.0"] ;
197 -> 199 ;
200 [label="mse = 0.0\nsamples = 2\nvalue = 73.0"] ;
196 -> 200 ;
201 [label="mse = 0.0\nsamples = 2\nvalue = 75.0"] ;
195 -> 201 ;
202 [label="mse = 0.0\nsamples = 1\nvalue = 76.0"] ;
194 -> 202 ;
203 [label="month_9 <= 0.5\nmse = 0.9\nsamples = 2\nvalue = 72.3"] ;
193 -> 203 ;
204 [label="mse = 0.0\nsamples = 1\nvalue = 73.0"] ;
203 -> 204 ;
205 [label="mse = 0.0\nsamples = 1\nvalue = 71.0"] ;
203 -> 205 ;
206 [label="mse = 0.0\nsamples = 1\nvalue = 70.0"] ;
192 -> 206 ;
207 [label="mse = 0.0\nsamples = 1\nvalue = 79.0"] ;
191 -> 207 ;
208 [label="mse = 0.0\nsamples = 1\nvalue = 68.0"] ;
190 -> 208 ;
209 [label="mse = 0.0\nsamples = 1\nvalue = 63.0"] ;
163 -> 209 ;
210 [label="week_Sun <= 0.5\nmse = 5.2\nsamples = 4\nvalue = 79.5"] ;
162 -> 210 ;
211 [label="temp_1 <= 83.0\nmse = 1.4\nsamples = 3\nvalue = 80.4"] ;
210 -> 211 ;
212 [label="date_2016-5-13 <= 0.5\nmse = 0.2\nsamples = 2\nvalue = 81.3"] ;
211 -> 212 ;
213 [label="mse = 0.0\nsamples = 1\nvalue = 81.0"] ;
212 -> 213 ;
214 [label="mse = 0.0\nsamples = 1\nvalue = 82.0"] ;
212 -> 214 ;
215 [label="mse = 0.0\nsamples = 1\nvalue = 79.0"] ;
211 -> 215 ;
216 [label="mse = 0.0\nsamples = 1\nvalue = 75.0"] ;
210 -> 216 ;
217 [label="friend <= 80.0\nmse = 11.5\nsamples = 7\nvalue = 68.2"] ;
161 -> 217 ;
218 [label="date_2016-7-9 <= 0.5\nmse = 4.7\nsamples = 5\nvalue = 66.2"] ;
217 -> 218 ;
219 [label="friend <= 66.5\nmse = 1.7\nsamples = 4\nvalue = 65.6"] ;
218 -> 219 ;
220 [label="month_4 <= 0.5\nmse = 0.9\nsamples = 2\nvalue = 64.3"] ;
219 -> 220 ;
221 [label="mse = 0.0\nsamples = 1\nvalue = 65.0"] ;
220 -> 221 ;
222 [label="mse = 0.0\nsamples = 1\nvalue = 63.0"] ;
220 -> 222 ;
223 [label="forecast_noaa <= 62.0\nmse = 0.2\nsamples = 2\nvalue = 66.5"] ;
219 -> 223 ;
224 [label="mse = 0.0\nsamples = 1\nvalue = 66.0"] ;
223 -> 224 ;
225 [label="mse = 0.0\nsamples = 1\nvalue = 67.0"] ;
223 -> 225 ;
226 [label="mse = 0.0\nsamples = 1\nvalue = 71.0"] ;
218 -> 226 ;
227 [label="month_7 <= 0.5\nmse = 3.0\nsamples = 2\nvalue = 72.0"] ;
217 -> 227 ;
228 [label="mse = 0.0\nsamples = 1\nvalue = 71.0"] ;
227 -> 228 ;
229 [label="mse = 0.0\nsamples = 1\nvalue = 75.0"] ;
227 -> 229 ;
230 [label="friend <= 73.5\nmse = 16.0\nsamples = 3\nvalue = 64.0"] ;
160 -> 230 ;
231 [label="mse = 0.0\nsamples = 2\nvalue = 60.0"] ;
230 -> 231 ;
232 [label="mse = 0.0\nsamples = 1\nvalue = 68.0"] ;
230 -> 232 ;
233 [label="temp_2 <= 79.0\nmse = 5.6\nsamples = 2\nvalue = 84.3"] ;
159 -> 233 ;
234 [label="mse = 0.0\nsamples = 1\nvalue = 81.0"] ;
233 -> 234 ;
235 [label="mse = 0.0\nsamples = 1\nvalue = 86.0"] ;
233 -> 235 ;
236 [label="forecast_noaa <= 73.5\nmse = 26.5\nsamples = 13\nvalue = 80.9"] ;
158 -> 236 ;
237 [label="forecast_acc <= 78.5\nmse = 14.2\nsamples = 4\nvalue = 85.6"] ;
236 -> 237 ;
238 [label="temp_2 <= 84.5\nmse = 3.6\nsamples = 2\nvalue = 80.3"] ;
237 -> 238 ;
239 [label="mse = 0.0\nsamples = 1\nvalue = 79.0"] ;
238 -> 239 ;
240 [label="mse = 0.0\nsamples = 1\nvalue = 83.0"] ;
238 -> 240 ;
241 [label="week_Fri <= 0.5\nmse = 1.8\nsamples = 2\nvalue = 87.9"] ;
237 -> 241 ;
242 [label="mse = 0.0\nsamples = 1\nvalue = 90.0"] ;
241 -> 242 ;
243 [label="mse = 0.0\nsamples = 1\nvalue = 87.0"] ;
241 -> 243 ;
244 [label="temp_1 <= 77.0\nmse = 10.3\nsamples = 9\nvalue = 77.8"] ;
236 -> 244 ;
245 [label="forecast_under <= 78.5\nmse = 7.6\nsamples = 7\nvalue = 76.0"] ;
244 -> 245 ;
246 [label="friend <= 73.0\nmse = 5.1\nsamples = 5\nvalue = 77.0"] ;
245 -> 246 ;
247 [label="date_2016-8-8 <= 0.5\nmse = 2.2\nsamples = 3\nvalue = 75.8"] ;
246 -> 247 ;
248 [label="month_8 <= 0.5\nmse = 0.2\nsamples = 2\nvalue = 76.5"] ;
247 -> 248 ;
249 [label="mse = 0.0\nsamples = 1\nvalue = 77.0"] ;
248 -> 249 ;
250 [label="mse = 0.0\nsamples = 1\nvalue = 76.0"] ;
248 -> 250 ;
251 [label="mse = 0.0\nsamples = 1\nvalue = 73.0"] ;
247 -> 251 ;
252 [label="mse = 0.0\nsamples = 2\nvalue = 80.0"] ;
246 -> 252 ;
253 [label="day_9 <= 0.5\nmse = 0.2\nsamples = 2\nvalue = 72.5"] ;
245 -> 253 ;
254 [label="mse = 0.0\nsamples = 1\nvalue = 73.0"] ;
253 -> 254 ;
255 [label="mse = 0.0\nsamples = 1\nvalue = 72.0"] ;
253 -> 255 ;
256 [label="date_2016-7-20 <= 0.5\nmse = 2.2\nsamples = 2\nvalue = 80.5"] ;
244 -> 256 ;
257 [label="mse = 0.0\nsamples = 1\nvalue = 79.0"] ;
256 -> 257 ;
258 [label="mse = 0.0\nsamples = 1\nvalue = 82.0"] ;
256 -> 258 ;
}